{"Layer_0": {"weights": [[0.0, 0.0, 0.0], [0.0, 0.0, 0.0], [0.0, 0.0, 0.0]], "biases": [0.0, 0.0, 0.0], "previousLayer_size": 3, "layer_size": 3, "activation_func": "leaky_relu", "activation_params": {"alpha": 0.01}, "layer_type": "input"}, "Layer_1": {"weights": [[0.19815332686872789, 0.12632190670383941, 0.10438275303533875], [-0.1272945096277768, 0.14341665530248726, 0.20532015868638312], [-0.1222755924035701, 0.12672625642090302, 0.21703869687400157], [-0.0037281829316122383, -0.0016431975992284033, -0.016215763585044937], [-0.019516125672050365, -0.0008866634257702283, -0.004787227700465286], [-0.08889120421165768, 0.14981227812414244, 0.0789119782149354], [0.8258376021924423, -0.5268209708652419, -0.4762292331146798], [-0.07841913627397457, 0.12145731421707698, 0.08505475789135192], [-0.09255060645635617, 0.21234545137291327, 0.03844367551799026], [0.2976671842234983, -0.11724585567037756, -0.22854684147840373]], "biases": [0.012514502668093086, 0.0807555791668687, 0.09111340513049582, -2.9482592467083443e-05, -8.586239895650646e-05, 0.062113401350214856, -0.053542718086921647, 0.053116755831877895, 0.04872200614494502, -0.0016646396679875256], "previousLayer_size": 3, "layer_size": 10, "activation_func": "leaky_relu", "activation_params": {"alpha": 0.01}, "layer_type": "hidden"}, "Layer_2": {"weights": [[0.039888845758259434, 0.34028023356631176, 0.4526776882906035, -0.012576878180646903, -0.010695871340122778, 0.36261070202706824, -0.04507385172345498, 0.3035090647480662, 0.35308471354603466, -0.019273307237742465], [-0.27742202590497983, -0.24327703110153795, -0.22821117459837853, 0.008316081441015252, 0.0008698271115245777, -0.3316869219192475, 0.4869473611162059, -0.2029694193586284, -0.20576605193763817, -0.36640828600197145], [-0.01767165550570197, -0.00040963463084110074, 0.0022155432538013887, 0.005017042653171006, -0.014972653056905845, -0.040048523926551845, -0.05048001708022447, -0.020238595285405184, -0.010811255921608441, -0.007181544167791631], [0.005842024248096894, -0.015730340839466183, -0.019460827671170678, -0.009469141665930731, -0.00225404306011704, 0.0006549574154479782, -0.015049467953002056, -0.01932614208874468, -0.021921730759222532, -0.02679021372769334], [0.05459548425028399, 0.32076455557902595, 0.42381462618181087, 0.00048526413611094164, -0.021415947284763516, 0.28114749007856177, -0.045759254961033086, 0.2565673423173678, 0.29136055698536834, -0.040086719395373435]], "biases": [0.18899873941419584, -0.15438432884156397, -0.0017677107090598996, -0.004945677289434022, 0.16809604289959873], "previousLayer_size": 10, "layer_size": 5, "activation_func": "leaky_relu", "activation_params": {"alpha": 0.01}, "layer_type": "hidden"}, "Layer_3": {"weights": [[-0.4434816560268953, 0.09931051217815175, -0.8491489553876959, -0.5916490643292015, -0.6767158842574867], [0.6351843822196822, -0.12052164660365992, -1.0946908622442224, -0.5729200095512216, 0.368776165223308]], "biases": [-0.27539769912679574, 0.47439405047178823], "previousLayer_size": 5, "layer_size": 2, "activation_func": "tanh", "activation_params": {}, "layer_type": "output"}}