{"Layer_0": {"weights": [[0.0, 0.0], [0.0, 0.0]], "biases": [0.0, 0.0], "previousLayer_size": 2, "layer_size": 2, "activation_func": "leaky_relu", "layer_type": "input"}, "Layer_1": {"weights": [[1.4283130633749668, 2.0595995070851885], [0.5468090468761717, -1.0690705887960645], [-0.1079499551615447, -0.10533302816046894], [0.01842089246419854, -0.38289672165504657], [1.4773978667128376, -0.009777337654752598], [0.0176581339225206, -0.3068095008550149], [-0.9758778916796181, 1.193273417961099], [-1.4614793338538468, -1.0429315135276196], [-0.47208394469373016, 0.7513692634412733], [-0.7352501841629915, 0.401729245068447]], "biases": [0.30461679149064, 0.06880046510156193, -0.010463001737864875, 0.13786908510182866, 0.44419265297849875, 0.11873540854709688, 0.1778464301354489, 0.18665519970379923, 0.11575876836122717, 0.3220864353115825], "previousLayer_size": 2, "layer_size": 10, "activation_func": "leaky_relu", "layer_type": "hidden"}, "Layer_2": {"weights": [[-0.3320632577260402, 0.5900702744220283, 0.0480314446589944, 0.16950748525314333, 0.4181647935615894, 0.1336799604226285, -0.1993335465377741, 0.6926962255545701, -0.17352707266220374, 0.029821412816119025], [1.267196690110486, -0.10958085476709682, 0.04980620099541893, -0.047899849879604335, 0.29565375149826584, -0.02020305661001041, 0.24392625411655186, 0.12339620850874085, 0.18977622267599553, -0.07987971594023947], [0.5854238773981298, 0.09253582773687498, 0.013346339464591121, -0.02429955050486681, 0.2692634103254603, -0.02476952582729297, 0.2226918711629693, 0.04252819752563971, 0.13203086151348667, 0.011815275763010133], [0.356983579297722, -0.18844849965850105, -0.08457849827365801, -0.2981930342734705, -0.2853779898849823, -0.23495385086346215, 0.923706127640574, -0.556062458538789, 0.5631767696015328, 0.46683787675900174], [0.041593561319348216, 0.1916335433024922, -0.03183175689838744, -0.050677909170348416, -0.8265961301515329, -0.023594131146903233, 1.0686547191411442, 0.06820044060864988, 0.60746659244633, 0.737896051234033], [0.9021322372405085, -0.010066977297298487, 0.04604752500176263, -0.0012677421423979837, 0.3104734923247563, -0.03172858886721157, 0.24175628372277017, 0.10738438045851183, 0.1743835608875739, -0.04207566676200156], [0.5764818554296552, -0.31398097490343363, 0.0765503323483871, 0.16587862655754088, -0.3396860213721322, 0.10109945910821382, 0.033664628380732114, 1.421753292777186, 0.01477015600767747, 0.16792090013284994], [-0.5600884297192623, 1.5996306105048836, -0.05625850924102613, 0.12621589177756307, 0.6550680678087855, 0.14978831256213926, -0.05649629447410766, -0.676056210066029, -0.04906692621247944, -0.084185634453347]], "biases": [0.07672575806111102, 0.05290605238335771, -0.1380643442142665, 0.345479009080427, 0.28418503399323125, -0.16083439349172357, 0.13444018167781868, 0.26877215245700586], "previousLayer_size": 10, "layer_size": 8, "activation_func": "leaky_relu", "layer_type": "hidden"}, "Layer_3": {"weights": [[-0.7310340367895868, 0.7275890888970274, 0.034597820739550464, 0.11295510548173507, -1.3138843016838353, 0.21445531123123715, -0.16622036886255995, -1.3590023211541036], [-0.7693629829710833, -0.513254388499161, -0.5230925621670371, 1.2258117005714413, 0.9976087103837987, -0.7026590859168208, -0.6704500137163807, -0.14492858102546996], [0.25881526657332243, -0.7336792378120927, -0.48809031023809596, -0.8992563075072166, -0.3849585206839848, -0.5883442229696383, 0.859517799620038, -1.1655889067670597], [0.19692548350714056, -0.31629971821909825, -0.0588155361164499, -1.2294528378723317, -0.7189037062020057, -0.1671832588813596, -1.1145505575837562, 0.9861629937801442]], "biases": [-0.43040763486635075, -1.2098805607264715, 0.36503459764155155, 0.29411373517116046], "previousLayer_size": 8, "layer_size": 4, "activation_func": "tanh", "layer_type": "output"}}