{"Layer_0": {"weights": [[0.0, 0.0], [0.0, 0.0]], "biases": [0.0, 0.0], "previousLayer_size": 2, "layer_size": 2, "activation_func": "leaky_relu", "layer_type": "input"}, "Layer_1": {"weights": [[-1.3024593143439458, 0.924677482392957], [0.347814394475132, 1.4159826264397624], [-0.018240900946369827, -0.007359303558964168], [-0.007034903606070663, -0.0035513701977504756], [-0.12630113143404037, 0.037311557731082357], [0.0913393186350785, -0.19377141370336468], [-0.10604472299074273, 0.033783008357687966], [-0.01207588244899101, 0.005112426193918793], [-0.001310951470487091, 0.0011002987979105271], [-0.03853277254600933, -0.001157930044567027], [-0.0028995668492681264, -0.0018444023792365822], [0.1996905958886103, 0.9198319712441821]], "biases": [1.0634037914312269, 0.43950125392152445, -0.0005383136335669421, 0.023899928851308917, 0.5398430170861073, -0.4393632726556862, 0.45329288043461424, -0.0010070762576677608, -0.001363996203164309, 0.1531176324456639, 0.009220553436843063, 0.09796448972553459], "previousLayer_size": 2, "layer_size": 12, "activation_func": "leaky_relu", "layer_type": "hidden"}, "Layer_2": {"weights": [[0.33948398782524325, 0.30147906188622814, 0.008517469075075319, -0.15095567850889205, -0.23986418752883543, -0.26141631090890927, -0.34861333479724754, 0.018628935581652732, -0.00988042692335761, -0.17977052918627384, -0.12004079042441858, -0.18834298544051054], [0.008244015600910754, 4.381300927445626e-05, 0.0016537107345963404, 0.011391789873095783, 0.006377891710222631, -0.012113053909063433, 0.0003997748039145818, 0.00349183692858697, -0.008547809394501291, -0.0015714278562385265, -0.0025129223253145257, -0.006670937154017416], [0.006952089048258655, -0.014651479346172265, 0.00393623072765976, -0.007218607919869689, 0.00994951665326381, 0.0011208679308017417, -0.008025063867568955, 0.0049194433583149505, 0.02340960226748257, 0.011819033185313224, 0.003995045082956707, -0.004604627600372137], [0.7566225647928441, 0.6155197559466181, -0.007526257735769362, -0.30473740288211215, -0.5627837452379018, -0.6059665001420479, -0.8223588755306748, -0.006566160788060348, -0.003430080823360327, -0.3892549362463563, -0.2816098134946792, -0.44403679151307357], [-1.1104859103267608, -0.29347044721669685, -0.003999197822659843, 0.5340592475379422, 0.9345151041778176, 1.0582930007342246, 1.3630075578292151, -0.004894645946047574, -0.005677907667207372, 0.6404941494555884, 0.4212310782550914, 0.8020875966040871], [-0.001433991428048934, -0.008053460681487438, 0.001660372574791066, 0.017757238309280197, 0.0033929853517880404, 0.0018296798060892258, -0.0035075982805626597, -0.011881637176788067, 4.5488156333899374e-05, 0.014489677798413817, -0.009993188794953235, -0.004929322250009237], [1.3315605862453121, 1.040201709556808, 0.0056366712122030965, -0.5725684273702405, -0.9355051239268632, -0.9897763445468577, -1.3467599746979542, -0.0014962843726780539, -0.00846336254304997, -0.6740723256917558, -0.46428024028068354, 0.015371304761905572], [-0.0037948487069908417, -0.010999271194592335, 0.008660226770418568, 0.01398525105730395, 0.004481578528700451, -0.017592871134614663, 0.015422156735832023, 0.009390714834090971, 0.009877979628763214, 0.004633544536941126, -0.00611415295008086, -6.107289936285013e-05]], "biases": [0.026233941349850045, -0.0035698880654066343, -0.0022734082454859187, 0.08026852755197302, 0.6029339458783415, -0.008471025811449385, 0.0022422110591602106, -0.012859403098144229], "previousLayer_size": 12, "layer_size": 8, "activation_func": "leaky_relu", "layer_type": "hidden"}, "Layer_3": {"weights": [[0.5338125337256626, 0.005277271147950383, -0.0033472091312879734, 1.205120346870404, -1.8440789498767376, 0.0031852792960173565, 1.7682649203716967, 0.004775446217915243], [-0.5181407810543028, -0.014299658283182685, -0.007086903891449004, -1.2101016884838616, 1.8455505040512228, -0.003355123979358348, -1.7689602617515807, 0.0010190166151558063]], "biases": [-0.8864362623497369, 0.8838899291234579], "previousLayer_size": 8, "layer_size": 2, "activation_func": "tanh", "layer_type": "output"}}