{"Layer_0": {"weights": [[0.0, 0.0, 0.0, 0.0], [0.0, 0.0, 0.0, 0.0], [0.0, 0.0, 0.0, 0.0], [0.0, 0.0, 0.0, 0.0]], "biases": [0.0, 0.0, 0.0, 0.0], "previousLayer_size": 4, "layer_size": 4, "activation_func": "leaky_relu", "activation_params": {"alpha": 0.01}, "layer_type": "input"}, "Layer_1": {"weights": [[0.33357353755746494, 1.1735046526298947, -1.7290416534193311, -0.6811114739615798], [-0.5665486006695766, -0.1888094919001459, 0.5974369605632047, -0.5334008198857518], [-0.7580478011022309, -0.1253764480890246, 1.0883461527451004, 0.2546082467839411], [-0.10373292886494738, 0.29994980490546524, 1.1662124218441567, -2.1416943691051005], [1.042234529277892, 0.4049004595723879, 0.059292083384226396, 0.9441275455804526], [-0.4724379528988284, 0.7656983667835532, -0.10294080189174282, -0.0466100714677017], [0.17125845896569797, -0.5007283967384885, 0.30390492953482884, -1.8393005049218611], [0.6021430255673683, 0.5177003352273681, 0.11304149202355744, -0.21390839029207595], [-1.0963524716566793, 2.0224439278229407, 0.08304660535171153, -1.794638800246556], [0.3181660231912728, -0.7418809138223661, -0.9764913387631736, 0.5288029856957488], [1.1678125212240353, 0.27344139215242347, 1.4904066115914754, 1.3573201491072053], [0.1235502840223341, 0.6703401837091214, 0.08088625202494518, -1.1646394581675839]], "biases": [1.3565941385748745, -0.003535830329007581, -0.1337201599875051, -0.3036272163270738, -0.1947682608009512, 0.37045736233469817, 0.0016009708280883292, 0.3913957397585623, 1.402305572407086, -0.006366869326876204, -0.07995949487437519, 0.45216325293597115], "previousLayer_size": 4, "layer_size": 12, "activation_func": "leaky_relu", "activation_params": {"alpha": 0.01}, "layer_type": "hidden"}, "Layer_2": {"weights": [[-0.3104393384632023, -0.030074676801958595, -0.07454890535441766, 0.7159460302907394, 0.5273822014080866, -0.12675063364725153, -0.16029467314216936, 0.6947013569198038, -0.8993314079317198, -0.5747970230463078, 1.7686414120906133, -0.6258605757804547], [-1.5997861574966026, 0.11678789107012064, 0.022784822524675157, 0.1126814389103265, 0.4845503008578284, 0.06886891273927806, -0.3171811483336011, -0.3553326335844655, -0.8862029612199287, -0.03260697491036514, 1.0170906751032762, -0.5109632796673719], [1.5916971370754731, -0.6001184642142164, -0.5319259197702922, -0.23909340875141472, -0.1372806324687317, 0.6051177305396074, 0.15333120135912298, 0.28068735876252604, 1.8652827309712416, -0.5083542339464603, -0.30023048085830945, 0.8763919127526947], [-0.8746765431270507, -0.8669005387566647, -0.1780310668730969, -0.8680370160561931, 0.21775765755888818, -0.3036986050320479, -0.26504401103233716, 0.3355651131000638, -0.6818149391611499, 0.0021717429852112754, 0.4120417262258799, -0.02468167538695009], [-0.32534867725889405, -0.030503731064431765, 0.65992311554945, -0.13550373381142808, -0.7036171214364261, -0.4599595792892203, 0.8467181910474301, -0.001064494099087196, 0.5747609114852823, 0.4643440940883281, -0.3532650086864972, -0.3043791537917268], [0.12557054302474213, 0.4983428428435263, -0.7292256376481336, -0.436239489396886, 0.8708779787871892, 0.1721405055471364, 0.43492447357353986, -0.3292158514041431, -0.5999870042126552, -0.3506483361214936, 0.638068525193972, 0.3670264382807434], [-0.5733541435117282, -0.7504733161398759, 0.09677514476973342, -0.09872574621550845, -0.3769728896870596, -0.2772294320039655, -0.020635195436784673, 0.4495492597425899, 0.45587156539545376, 0.23723823957960616, -0.2753297384441838, -0.8709206262201786], [-0.6112072889805715, 0.3972828646414609, 0.5333267075436621, 0.03960965501792773, 0.22699790680454227, -0.6215174874785204, -0.13576541139063655, -0.15017356972651, -0.6886933976302335, 0.37630691657946896, 0.7595678810540083, 0.04872456592550524]], "biases": [0.5291032909585733, -0.33491382851994544, 0.28116794805150774, -0.07813090638215284, -0.003737748259126069, 0.015686894507431833, 0.0019055876496033878, -0.5165357358807116], "previousLayer_size": 12, "layer_size": 8, "activation_func": "leaky_relu", "activation_params": {"alpha": 0.01}, "layer_type": "hidden"}, "Layer_3": {"weights": [[-1.966014648616291, -0.4921874263819085, 1.6236766679403443, -0.08457898340242267, 0.2920540562684446, -0.6467416797104055, -0.1525143095700679, -0.13426763828954], [1.1460509147554758, -1.5598379468474546, 0.21696628644824967, -0.8053787217658337, -0.30748495226326034, 0.40279563341190455, 0.642590564659527, -0.7481985350685684], [0.7562421529483767, 1.3142132312719819, -2.1153274799143555, 0.4878670711733589, 0.44753915710442915, 0.33072577940562353, 0.3605734552718438, 1.2814913051982235]], "biases": [-0.08571504646432561, 0.5149016743778841, -0.42918662791317214], "previousLayer_size": 8, "layer_size": 3, "activation_func": "softmax", "activation_params": {}, "layer_type": "output"}}