{"Layer_0": {"weights": [[0.0, 0.0], [0.0, 0.0]], "biases": [0.0, 0.0], "previousLayer_size": 2, "layer_size": 2, "activation_func": "leaky_relu", "layer_type": "input"}, "Layer_1": {"weights": [[-0.0008601795367847054, -0.008653169310060108], [-0.010627043125784875, -0.00672718080287332], [-2.3097131687477326, 0.6372167468246991], [-0.0036673637160499995, -0.004737365982413377], [-1.1478912899419451, 0.505160829033074], [-1.5282135488206667, 1.7634122481849237], [-0.0173403631442032, -0.008722069242792129], [1.345687670872995, -2.032955146864426], [0.5243329710095344, -1.288632714901292], [-0.3317833158468151, 0.3312649005462489], [-0.0015432233754348362, -0.011210183521804858], [1.919171454265483, -2.588929695308956], [0.37576825451130175, -0.671082498178503], [-1.1367105428581956, -1.7761808797995042], [-0.09819624417077047, -0.5730051633396718], [-0.0209973251078583, -0.019267850217877518]], "biases": [-0.0006364293666055295, -0.0005386722552863948, 3.452751675372902, -0.00011145147744351788, 0.5663900856768964, -1.7714046113365214, -0.0003664000995323498, 0.5703698253005344, 0.48382490310849835, -0.7133682233222582, -0.0003919870441300395, 0.9757377952923444, 0.38459156756291607, 6.358225398534108, 1.4206769400729353, -0.00030599632332156923], "previousLayer_size": 2, "layer_size": 16, "activation_func": "leaky_relu", "layer_type": "hidden"}, "Layer_2": {"weights": [[-9.47350619912635e-05, 0.02556712388314264, 0.9108528405955284, -0.003826981871437547, -2.544668316927904, 0.5993415483188199, 0.011177862330314006, -0.6167249186603937, 0.4605507874222808, -3.1040943069054414, 0.003111037399407795, -0.48169919122978927, 0.4108038338571785, 0.6706942882926135, -1.718514789236957, 0.0017898472776394167], [-0.011888470546145986, 0.016381665728296607, -0.10241392319157337, 4.0949798982774334e-05, -1.622030640185579, 0.6862529585322634, 0.004353376815300919, 0.13416864260896016, -0.5592366091201884, -0.5625643242116422, -0.004191592145241441, 0.19505068889930685, 0.5346714560306054, -2.5804941252349454, -0.0012306579644676464, 0.004531298476793757], [0.0016402324588266303, -0.011954557870311269, 1.7476075819059531, 0.006106470731160729, -2.905501754620811, 0.15768169898086687, -0.008742181963614995, 1.4409309870733262, -1.1445906001917656, -3.60156653506074, 0.01948862221293524, 1.1959565793178857, 0.6388816458197094, -0.3136353861809896, -1.9040103393225083, 0.017784276283159612], [0.021946151282620938, 0.00040786370605153224, -0.8041610166413573, 0.0005501824770561545, 0.2954075160180568, 0.34516025233969727, -0.003426017681494687, -0.9412618358723467, -0.21571310488876988, -0.5274263836477177, 0.0060444598330084715, -1.2237039036571733, 0.2767898824531869, 0.8786643766719172, -0.6636660339357524, -0.00046521090939840166], [-0.005823399018672468, -0.0029201523033509126, -0.9169040856398999, 0.012705199306413088, -0.19580880977912068, -1.2816007921650987, -0.014894815466783165, -0.11133879893850397, -0.24814984737218665, -0.0544495804915907, -0.0029192942069892315, -0.566845413957134, 0.13517857653983262, 0.4257923415914703, -0.3195490806534274, -0.0006960568593178572], [0.004059262575655693, -0.009447018769506245, -0.7655659294172923, -0.004463487735953121, -0.01839461324731975, -1.4995509197481258, -0.00954818007595126, 0.40551526022555207, -0.3109839012633788, -0.1936069289014518, -0.004392541625131099, -0.8742886715654109, 0.2582722376080935, 0.3539485818294901, -0.6049685347307238, 0.009576429860462338], [0.0022684229274588007, -0.011762950244712703, -0.10309486673576299, 0.01709094871367957, -2.611374256540782, 2.2043160434906772, 0.009635728329736745, -0.4346403569519452, 0.06931581664448308, -3.646234833663724, 0.01026595044163387, -0.48392821784292006, 0.26105422565181025, 1.2333261239971487, -2.3990145756100483, 0.008154126531267606], [0.0006289981182197458, 0.001234733862522137, -0.0714872601705787, -0.008622210204469904, -0.02721010850490296, 0.04797149438404057, 0.009323659481047944, -0.0029924510285673058, -0.014600369571758134, -0.002530594138442438, 0.0057687013219513295, 0.032969969581597876, -0.01668593333158309, -0.05264559151980158, -0.013785335685768133, 0.015670359032823853]], "biases": [-0.8735617336561023, -2.6994573114116456, -1.540166489609749, -0.6011185667389062, 0.9867387635912674, 1.2754527939660754, -0.672590249101643, 0.06343478198546555], "previousLayer_size": 16, "layer_size": 8, "activation_func": "leaky_relu", "layer_type": "hidden"}, "Layer_3": {"weights": [[1.048190080595608, 0.5989625449429951, 0.9188179547449609, 1.5915796753105231, 1.3849134580077025, 1.866671463876604, 1.280519753818573, -0.08333434942469582], [-1.0476993135656303, -0.5993404079235712, -0.9189580352350211, -1.5956796017607802, -1.379630971564329, -1.871133989907653, -1.280376671283385, 0.09357486146905819]], "biases": [-2.86423428744756, 2.863804983091196], "previousLayer_size": 8, "layer_size": 2, "activation_func": "tanh", "layer_type": "output"}}