{"Layer_0": {"weights": [[0.0, 0.0, 0.0], [0.0, 0.0, 0.0], [0.0, 0.0, 0.0]], "biases": [0.0, 0.0, 0.0], "previousLayer_size": 3, "layer_size": 3, "activation_func": "leaky_relu", "activation_params": {"alpha": 0.01}, "layer_type": "input"}, "Layer_1": {"weights": [[-3.9973278557154073, 5.531544608183556, 35.54867833941539], [9.666317170263754, 8.31235259838836, 10.168492726815483], [9.208136026071413, 7.678144658406224, 11.816328975037756], [10.437043251137396, 9.458466783004397, 9.52338225003056], [9.742228262708904, 6.386894126418755, 11.549091297470268], [9.304972239355779, 7.946862495539244, 10.885110573292318], [10.089287579435599, 9.272708431539911, 10.995379920502323], [10.199797556493225, 8.467682854530931, 10.57267009726701], [10.274303776710333, 8.7267924437771, 11.5260880901118], [10.872532302211942, 8.821526978340817, 10.591841664469449]], "biases": [6.049904928142173, 8.271962634037804, 8.52219027322072, 8.657523587727557, 7.655526917424395, 8.554270698142439, 8.01846294473556, 8.859809545927764, 8.336636168017126, 8.504985967617984], "previousLayer_size": 3, "layer_size": 10, "activation_func": "leaky_relu", "activation_params": {"alpha": 0.01}, "layer_type": "hidden"}, "Layer_2": {"weights": [[27.867078057093394, -7.530638679930713, -6.302204917588109, -7.480679346378985, -7.246703803611133, -6.387431907102344, -8.588906361783778, -8.043326724596634, -7.836869690386626, -8.44623907405732], [28.34001322748027, -7.239382837398582, -5.781779228172304, -8.348099278305684, -7.874211488435052, -6.828566747556899, -7.541413677644268, -7.691081934404778, -7.530625974728988, -8.467666964404984], [-25.68454883232215, 1.4165202907930354, 1.4690950330973742, 2.1472437393348716, 0.28295671581401527, 1.5979320900314018, 1.1496096413860948, 2.0238991730189575, 1.1957201357455554, 1.5627944334811519], [28.716141303560246, -6.951816563740802, -7.258898870563903, -8.128010151381773, -7.266577941189083, -7.176107549873925, -7.891344406001168, -8.009650423662478, -7.830985542105339, -8.47015977647118], [-183.29048190022579, 8.363734924442614, 6.613014165075118, 9.225232929618443, 8.08947055366489, 7.567853320902521, 7.747668732928523, 8.625514744869534, 7.388134670929876, 8.178170555581485], [28.352938818378547, -7.49122378247168, -6.380277177304564, -8.310197916920128, -6.626955140137561, -6.346659158750854, -7.8205917226039166, -8.045960323300045, -8.154784367559353, -7.917268745799166], [-11.982668874073632, -10.368634467615033, -10.043465654691639, -9.392215970104829, -11.049256588581873, -9.768819135489599, -9.720566175047388, -9.185310037362283, -9.115900129711303, -9.351196219902054], [27.56879091165532, -6.392262933712734, -6.315453291421829, -8.692456435548246, -7.026856373398246, -6.704564503183961, -7.915501555929275, -7.6433258989473485, -7.853566550874667, -8.196804613720563]], "biases": [-37.28871257121619, -37.29968706768119, 1.5515274534357677, -37.29158990895501, 0.8675637145357147, -37.284138129659425, -8.37954232361837, -37.11408421752604], "previousLayer_size": 10, "layer_size": 8, "activation_func": "leaky_relu", "activation_params": {"alpha": 0.01}, "layer_type": "hidden"}, "Layer_3": {"weights": [[-9.35089573615172, -9.099176827036946, 0.07412091355870994, -9.509420512659943, -0.02192495723083953, -9.217809232232106, -1.5840074216459195, -9.115749758199554]], "biases": [9.721081387825217], "previousLayer_size": 8, "layer_size": 1, "activation_func": "linear", "activation_params": {}, "layer_type": "output"}}